<?xml version="1.0"?>
<opencv_storage>
<cascade>
  <stageType>BOOST</stageType>
  <featureType>HAAR</featureType>
  <height>20</height>
  <width>20</width>
  <stageParams>
    <boostType>GAB</boostType>
    <minHitRate>9.9500000476837158e-01</minHitRate>
    <maxFalseAlarm>5.0000000000000000e-01</maxFalseAlarm>
    <weightTrimRate>9.4999999999999996e-01</weightTrimRate>
    <maxDepth>1</maxDepth>
    <maxWeakCount>100</maxWeakCount></stageParams>
  <featureParams>
    <maxCatCount>0</maxCatCount>
    <featSize>1</featSize>
    <mode>BASIC</mode></featureParams>
  <stageNum>10</stageNum>
  <stages>
    <!-- stage 0 -->
    <_>
      <maxWeakCount>2</maxWeakCount>
      <stageThreshold>-6.5005555748939514e-02</stageThreshold>
      <weakClassifiers>
        <_>
          <internalNodes>
            0 -1 14 9.8890712251886725e-05</internalNodes>
          <leafValues>
            -9.5833331346511841e-01 9.4117647409439087e-01</leafValues></_>
        <_>
          <internalNodes>
            0 -1 7 6.7249280400574207e-03</internalNodes>
          <leafValues>
            -9.6721816062927246e-01 8.9332777261734009e-01</leafValues></_></weakClassifiers></_>
    <!-- stage 1 -->
    <_>
      <maxWeakCount>2</maxWeakCount>
      <stageThreshold>5.5555555969476700e-02</stageThreshold>
      <weakClassifiers>
        <_>
          <internalNodes>
            0 -1 19 1.3969407882541418e-03</internalNodes>
          <leafValues>
            -9.4444441795349121e-01 7.3684209585189819e-01</leafValues></_>
        <_>
          <internalNodes>
            0 -1 8 4.3700017035007477e-02</internalNodes>
          <leafValues>
            -5.5341589450836182e-01 1.</leafValues></_></weakClassifiers></_>
    <!-- stage 2 -->
    <_>
      <maxWeakCount>4</maxWeakCount>
      <stageThreshold>4.7814972698688507e-02</stageThreshold>
      <weakClassifiers>
        <_>
          <internalNodes>
            0 -1 18 -1.3775987550616264e-02</internalNodes>
          <leafValues>
            7.6923078298568726e-01 -6.5217393636703491e-01</leafValues></_>
        <_>
          <internalNodes>
            0 -1 15 -3.1358941923826933e-03</internalNodes>
          <leafValues>
            5.9421879053115845e-01 -8.8853746652603149e-01</leafValues></_>
        <_>
          <internalNodes>
            0 -1 0 -4.3528370559215546e-02</internalNodes>
          <leafValues>
            1. -5.2928578853607178e-01</leafValues></_>
        <_>
          <internalNodes>
            0 -1 17 6.9969184696674347e-03</internalNodes>
          <leafValues>
            -6.7740732431411743e-01 6.9640749692916870e-01</leafValues></_></weakClassifiers></_>
    <!-- stage 3 -->
    <_>
      <maxWeakCount>3</maxWeakCount>
      <stageThreshold>-4.1529780626296997e-01</stageThreshold>
      <weakClassifiers>
        <_>
          <internalNodes>
            0 -1 4 -1.0854446887969971e-01</internalNodes>
          <leafValues>
            -3.7500000000000000e-01 8.6046510934829712e-01</leafValues></_>
        <_>
          <internalNodes>
            0 -1 1 -3.7843927275389433e-03</internalNodes>
          <leafValues>
            9.4284927845001221e-01 -4.5298409461975098e-01</leafValues></_>
        <_>
          <internalNodes>
            0 -1 20 -8.1640668213367462e-03</internalNodes>
          <leafValues>
            5.9978401660919189e-01 -8.2277882099151611e-01</leafValues></_></weakClassifiers></_>
    <!-- stage 4 -->
    <_>
      <maxWeakCount>2</maxWeakCount>
      <stageThreshold>1.5331250429153442e-01</stageThreshold>
      <weakClassifiers>
        <_>
          <internalNodes>
            0 -1 21 3.2841654028743505e-03</internalNodes>
          <leafValues>
            -8.2352942228317261e-01 6.7241376638412476e-01</leafValues></_>
        <_>
          <internalNodes>
            0 -1 16 -1.1052642017602921e-02</internalNodes>
          <leafValues>
            9.7684192657470703e-01 -4.5470121502876282e-01</leafValues></_></weakClassifiers></_>
    <!-- stage 5 -->
    <_>
      <maxWeakCount>3</maxWeakCount>
      <stageThreshold>-6.2901717424392700e-01</stageThreshold>
      <weakClassifiers>
        <_>
          <internalNodes>
            0 -1 5 3.1427558511495590e-02</internalNodes>
          <leafValues>
            6.5811967849731445e-01 -8.1818181276321411e-01</leafValues></_>
        <_>
          <internalNodes>
            0 -1 24 -6.5867258235812187e-03</internalNodes>
          <leafValues>
            7.7483958005905151e-01 -5.3689420223236084e-01</leafValues></_>
        <_>
          <internalNodes>
            0 -1 22 -8.2351230084896088e-03</internalNodes>
          <leafValues>
            5.0491398572921753e-01 -7.5024259090423584e-01</leafValues></_></weakClassifiers></_>
    <!-- stage 6 -->
    <_>
      <maxWeakCount>1</maxWeakCount>
      <stageThreshold>6.2601625919342041e-01</stageThreshold>
      <weakClassifiers>
        <_>
          <internalNodes>
            0 -1 11 -3.5826298408210278e-03</internalNodes>
          <leafValues>
            -1. 6.2601625919342041e-01</leafValues></_></weakClassifiers></_>
    <!-- stage 7 -->
    <_>
      <maxWeakCount>2</maxWeakCount>
      <stageThreshold>-2.1461224183440208e-02</stageThreshold>
      <weakClassifiers>
        <_>
          <internalNodes>
            0 -1 6 -5.5331932380795479e-03</internalNodes>
          <leafValues>
            -8.7096774578094482e-01 6.4705884456634521e-01</leafValues></_>
        <_>
          <internalNodes>
            0 -1 2 -2.6542942970991135e-02</internalNodes>
          <leafValues>
            8.4950649738311768e-01 -6.0324382781982422e-01</leafValues></_></weakClassifiers></_>
    <!-- stage 8 -->
    <_>
      <maxWeakCount>3</maxWeakCount>
      <stageThreshold>-8.2238084077835083e-01</stageThreshold>
      <weakClassifiers>
        <_>
          <internalNodes>
            0 -1 10 -8.5399951785802841e-03</internalNodes>
          <leafValues>
            -9.3548387289047241e-01 6.6386556625366211e-01</leafValues></_>
        <_>
          <internalNodes>
            0 -1 23 -3.2803818583488464e-02</internalNodes>
          <leafValues>
            -9.4345742464065552e-01 5.5032616853713989e-01</leafValues></_>
        <_>
          <internalNodes>
            0 -1 9 -3.2954305410385132e-02</internalNodes>
          <leafValues>
            8.7114757299423218e-01 -5.4278898239135742e-01</leafValues></_></weakClassifiers></_>
    <!-- stage 9 -->
    <_>
      <maxWeakCount>4</maxWeakCount>
      <stageThreshold>-5.0323915481567383e-01</stageThreshold>
      <weakClassifiers>
        <_>
          <internalNodes>
            0 -1 23 -3.6691207438707352e-02</internalNodes>
          <leafValues>
            -9.3548387289047241e-01 6.6386556625366211e-01</leafValues></_>
        <_>
          <internalNodes>
            0 -1 12 1.5147839672863483e-02</internalNodes>
          <leafValues>
            4.8578837513923645e-01 -9.6859508752822876e-01</leafValues></_>
        <_>
          <internalNodes>
            0 -1 3 -6.2295749783515930e-02</internalNodes>
          <leafValues>
            9.4351202249526978e-01 -5.3997522592544556e-01</leafValues></_>
        <_>
          <internalNodes>
            0 -1 13 -4.7420122427865863e-04</internalNodes>
          <leafValues>
            4.8643159866333008e-01 -7.7900016307830811e-01</leafValues></_></weakClassifiers></_></stages>
  <features>
    <_>
      <rects>
        <_>
          0 2 6 17 -1.</_>
        <_>
          3 2 3 17 2.</_></rects>
      <tilted>0</tilted></_>
    <_>
      <rects>
        <_>
          0 10 2 2 -1.</_>
        <_>
          1 10 1 2 2.</_></rects>
      <tilted>0</tilted></_>
    <_>
      <rects>
        <_>
          1 0 2 14 -1.</_>
        <_>
          1 7 2 7 2.</_></rects>
      <tilted>0</tilted></_>
    <_>
      <rects>
        <_>
          1 0 4 12 -1.</_>
        <_>
          1 6 4 6 2.</_></rects>
      <tilted>0</tilted></_>
    <_>
      <rects>
        <_>
          1 10 15 1 -1.</_>
        <_>
          6 10 5 1 2.</_></rects>
      <tilted>0</tilted></_>
    <_>
      <rects>
        <_>
          2 6 13 8 -1.</_>
        <_>
          2 10 13 4 2.</_></rects>
      <tilted>0</tilted></_>
    <_>
      <rects>
        <_>
          2 7 6 7 -1.</_>
        <_>
          5 7 3 7 2.</_></rects>
      <tilted>0</tilted></_>
    <_>
      <rects>
        <_>
          2 10 10 3 -1.</_>
        <_>
          7 10 5 3 2.</_></rects>
      <tilted>0</tilted></_>
    <_>
      <rects>
        <_>
          2 12 16 8 -1.</_>
        <_>
          2 16 16 4 2.</_></rects>
      <tilted>0</tilted></_>
    <_>
      <rects>
        <_>
          3 0 3 10 -1.</_>
        <_>
          3 5 3 5 2.</_></rects>
      <tilted>0</tilted></_>
    <_>
      <rects>
        <_>
          3 6 12 4 -1.</_>
        <_>
          9 6 6 4 2.</_></rects>
      <tilted>0</tilted></_>
    <_>
      <rects>
        <_>
          5 5 9 8 -1.</_>
        <_>
          5 9 9 4 2.</_></rects>
      <tilted>0</tilted></_>
    <_>
      <rects>
        <_>
          5 7 5 8 -1.</_>
        <_>
          5 11 5 4 2.</_></rects>
      <tilted>0</tilted></_>
    <_>
      <rects>
        <_>
          5 9 6 6 -1.</_>
        <_>
          5 9 3 3 2.</_>
        <_>
          8 12 3 3 2.</_></rects>
      <tilted>0</tilted></_>
    <_>
      <rects>
        <_>
          6 5 6 8 -1.</_>
        <_>
          6 9 6 4 2.</_></rects>
      <tilted>0</tilted></_>
    <_>
      <rects>
        <_>
          6 11 6 4 -1.</_>
        <_>
          6 13 6 2 2.</_></rects>
      <tilted>0</tilted></_>
    <_>
      <rects>
        <_>
          7 2 8 2 -1.</_>
        <_>
          7 3 8 1 2.</_></rects>
      <tilted>0</tilted></_>
    <_>
      <rects>
        <_>
          7 7 4 7 -1.</_>
        <_>
          9 7 2 7 2.</_></rects>
      <tilted>0</tilted></_>
    <_>
      <rects>
        <_>
          7 9 12 4 -1.</_>
        <_>
          13 9 6 4 2.</_></rects>
      <tilted>0</tilted></_>
    <_>
      <rects>
        <_>
          7 10 4 2 -1.</_>
        <_>
          9 10 2 2 2.</_></rects>
      <tilted>0</tilted></_>
    <_>
      <rects>
        <_>
          7 10 12 2 -1.</_>
        <_>
          13 10 6 2 2.</_></rects>
      <tilted>0</tilted></_>
    <_>
      <rects>
        <_>
          8 8 4 4 -1.</_>
        <_>
          8 10 4 2 2.</_></rects>
      <tilted>0</tilted></_>
    <_>
      <rects>
        <_>
          9 10 6 3 -1.</_>
        <_>
          12 10 3 3 2.</_></rects>
      <tilted>0</tilted></_>
    <_>
      <rects>
        <_>
          11 7 8 6 -1.</_>
        <_>
          15 7 4 6 2.</_></rects>
      <tilted>0</tilted></_>
    <_>
      <rects>
        <_>
          12 1 4 4 -1.</_>
        <_>
          12 3 4 2 2.</_></rects>
      <tilted>0</tilted></_></features></cascade>
</opencv_storage>
